digraph Tree {
node [shape=box, style="filled", color="black"] ;
0 [label="petal width (cm) <= 1.65\ngini = 0.662\nsamples = 105\nvalue = [31, 33, 41]\nclass = virginica", fillcolor="#f1e9fc"] ;
1 [label="petal length (cm) <= 2.45\ngini = 0.529\nsamples = 65\nvalue = [31, 32, 2]\nclass = versicolor", fillcolor="#f9fefb"] ;
0 -> 1 [labeldistance=2.5, labelangle=45, headlabel="True"] ;
2 [label="gini = 0.0\nsamples = 31\nvalue = [31, 0, 0]\nclass = setosa", fillcolor="#e58139"] ;
1 -> 2 ;
3 [label="petal length (cm) <= 5.35\ngini = 0.111\nsamples = 34\nvalue = [0, 32, 2]\nclass = versicolor", fillcolor="#45e789"] ;
1 -> 3 ;
4 [label="gini = 0.0\nsamples = 32\nvalue = [0, 32, 0]\nclass = versicolor", fillcolor="#39e581"] ;
3 -> 4 ;
5 [label="gini = 0.0\nsamples = 2\nvalue = [0, 0, 2]\nclass = virginica", fillcolor="#8139e5"] ;
3 -> 5 ;
6 [label="petal length (cm) <= 4.85\ngini = 0.049\nsamples = 40\nvalue = [0, 1, 39]\nclass = virginica", fillcolor="#843ee6"] ;
0 -> 6 [labeldistance=2.5, labelangle=-45, headlabel="False"] ;
7 [label="sepal width (cm) <= 3.1\ngini = 0.375\nsamples = 4\nvalue = [0, 1, 3]\nclass = virginica", fillcolor="#ab7bee"] ;
6 -> 7 ;
8 [label="gini = 0.0\nsamples = 3\nvalue = [0, 0, 3]\nclass = virginica", fillcolor="#8139e5"] ;
7 -> 8 ;
9 [label="gini = 0.0\nsamples = 1\nvalue = [0, 1, 0]\nclass = versicolor", fillcolor="#39e581"] ;
7 -> 9 ;
10 [label="gini = 0.0\nsamples = 36\nvalue = [0, 0, 36]\nclass = virginica", fillcolor="#8139e5"] ;
6 -> 10 ;
}