digraph Tree {
node [shape=box, style="filled", color="black"] ;
0 [label="Wind_False <= 0.5\ngini = 0.463\nsamples = 11\nvalue = [4, 7]\nclass = play_yes", fillcolor="#aad5f4"] ;
1 [label="Outlook_Sunny <= 0.5\ngini = 0.48\nsamples = 5\nvalue = [3, 2]\nclass = play_no", fillcolor="#f6d5bd"] ;
0 -> 1 [labeldistance=2.5, labelangle=45, headlabel="True"] ;
3 [label="Humidity_High <= 0.5\ngini = 0.444\nsamples = 3\nvalue = [1, 2]\nclass = play_yes", fillcolor="#9ccef2"] ;
1 -> 3 ;
5 [label="gini = 0.0\nsamples = 2\nvalue = [0, 2]\nclass = play_yes", fillcolor="#399de5"] ;
3 -> 5 ;
6 [label="gini = 0.0\nsamples = 1\nvalue = [1, 0]\nclass = play_no", fillcolor="#e58139"] ;
3 -> 6 ;
4 [label="gini = 0.0\nsamples = 2\nvalue = [2, 0]\nclass = play_no", fillcolor="#e58139"] ;
1 -> 4 ;
2 [label="Outlook_Rainy <= 0.5\ngini = 0.278\nsamples = 6\nvalue = [1, 5]\nclass = play_yes", fillcolor="#61b1ea"] ;
0 -> 2 [labeldistance=2.5, labelangle=-45, headlabel="False"] ;
7 [label="gini = 0.0\nsamples = 4\nvalue = [0, 4]\nclass = play_yes", fillcolor="#399de5"] ;
2 -> 7 ;
8 [label="Humidity_Normal <= 0.5\ngini = 0.5\nsamples = 2\nvalue = [1, 1]\nclass = play_no", fillcolor="#ffffff"] ;
2 -> 8 ;
9 [label="gini = 0.0\nsamples = 1\nvalue = [1, 0]\nclass = play_no", fillcolor="#e58139"] ;
8 -> 9 ;
10 [label="gini = 0.0\nsamples = 1\nvalue = [0, 1]\nclass = play_yes", fillcolor="#399de5"] ;
8 -> 10 ;
}